<?xml version="1.0"?>
<opencv_storage>
<cascade>
  <stageType>BOOST</stageType>
  <featureType>HAAR</featureType>
  <height>40</height>
  <width>30</width>
  <stageParams>
    <boostType>GAB</boostType>
    <minHitRate>9.9500000476837158e-01</minHitRate>
    <maxFalseAlarm>5.0000000000000000e-01</maxFalseAlarm>
    <weightTrimRate>9.4999998807907104e-01</weightTrimRate>
    <maxDepth>1</maxDepth>
    <maxWeakCount>100</maxWeakCount></stageParams>
  <featureParams>
    <maxCatCount>0</maxCatCount>
    <featSize>1</featSize>
    <mode>BASIC</mode></featureParams>
  <stageNum>20</stageNum>
  <stages>
    <!-- stage 0 -->
    <_>
      <maxWeakCount>5</maxWeakCount>
      <stageThreshold>-7.2499054670333862e-01</stageThreshold>
      <weakClassifiers>
        <_>
          <internalNodes>
            0 -1 30 1.2108706682920456e-01</internalNodes>
          <leafValues>
            -5.7272726297378540e-01 7.6623374223709106e-01</leafValues></_>
        <_>
          <internalNodes>
            0 -1 89 7.4634060729295015e-04</internalNodes>
          <leafValues>
            -4.1613098978996277e-01 6.5483319759368896e-01</leafValues></_>
        <_>
          <internalNodes>
            0 -1 88 2.7319798246026039e-03</internalNodes>
          <leafValues>
            -5.4684805870056152e-01 5.7137691974639893e-01</leafValues></_>
        <_>
          <internalNodes>
            0 -1 11 4.6131267481541727e-06</internalNodes>
          <leafValues>
            4.2248243093490601e-01 -7.4369269609451294e-01</leafValues></_>
        <_>
          <internalNodes>
            0 -1 45 6.0971524362685159e-06</internalNodes>
          <leafValues>
            4.6743640303611755e-01 -7.2999161481857300e-01</leafValues></_></weakClassifiers></_>
    <!-- stage 1 -->
    <_>
      <maxWeakCount>5</maxWeakCount>
      <stageThreshold>-9.0257787704467773e-01</stageThreshold>
      <weakClassifiers>
        <_>
          <internalNodes>
            0 -1 20 -8.1843644380569458e-02</internalNodes>
          <leafValues>
            6.1224490404129028e-01 -6.3819092512130737e-01</leafValues></_>
        <_>
          <internalNodes>
            0 -1 41 -5.3283418528735638e-03</internalNodes>
          <leafValues>
            6.6416329145431519e-01 -5.2842521667480469e-01</leafValues></_>
        <_>
          <internalNodes>
            0 -1 66 -6.4412625506520271e-03</internalNodes>
          <leafValues>
            6.6191405057907104e-01 -5.0247341394424438e-01</leafValues></_>
        <_>
          <internalNodes>
            0 -1 36 -8.1771913755801506e-06</internalNodes>
          <leafValues>
            -7.4665552377700806e-01 5.1118046045303345e-01</leafValues></_>
        <_>
          <internalNodes>
            0 -1 37 3.9869747706688941e-04</internalNodes>
          <leafValues>
            3.4877976775169373e-01 -7.9993414878845215e-01</leafValues></_></weakClassifiers></_>
    <!-- stage 2 -->
    <_>
      <maxWeakCount>6</maxWeakCount>
      <stageThreshold>-7.8718906641006470e-01</stageThreshold>
      <weakClassifiers>
        <_>
          <internalNodes>
            0 -1 92 1.7300565959885716e-03</internalNodes>
          <leafValues>
            -4.2629483342170715e-01 8.6956518888473511e-01</leafValues></_>
        <_>
          <internalNodes>
            0 -1 115 7.1633685365668498e-06</internalNodes>
          <leafValues>
            3.4673991799354553e-01 -8.2362323999404907e-01</leafValues></_>
        <_>
          <internalNodes>
            0 -1 84 2.4594448041170835e-04</internalNodes>
          <leafValues>
            -3.8250598311424255e-01 7.9932600259780884e-01</leafValues></_>
        <_>
          <internalNodes>
            0 -1 4 -1.5080556273460388e-02</internalNodes>
          <leafValues>
            6.6862422227859497e-01 -4.5623615384101868e-01</leafValues></_>
        <_>
          <internalNodes>
            0 -1 107 2.7783846016973257e-03</internalNodes>
          <leafValues>
            -2.6370716094970703e-01 9.2829000949859619e-01</leafValues></_>
        <_>
          <internalNodes>
            0 -1 90 3.2112860935740173e-05</internalNodes>
          <leafValues>
            3.9481511712074280e-01 -7.1484631299972534e-01</leafValues></_></weakClassifiers></_>
    <!-- stage 3 -->
    <_>
      <maxWeakCount>3</maxWeakCount>
      <stageThreshold>-7.1218657493591309e-01</stageThreshold>
      <weakClassifiers>
        <_>
          <internalNodes>
            0 -1 86 -3.2298050355166197e-03</internalNodes>
          <leafValues>
            5.0000000000000000e-01 -8.7261146306991577e-01</leafValues></_>
        <_>
          <internalNodes>
            0 -1 77 9.8335731308907270e-04</internalNodes>
          <leafValues>
            -5.3529345989227295e-01 8.8042646646499634e-01</leafValues></_>
        <_>
          <internalNodes>
            0 -1 38 2.1198750473558903e-03</internalNodes>
          <leafValues>
            -4.9362856149673462e-01 6.9571834802627563e-01</leafValues></_></weakClassifiers></_>
    <!-- stage 4 -->
    <_>
      <maxWeakCount>7</maxWeakCount>
      <stageThreshold>-1.3451471328735352e+00</stageThreshold>
      <weakClassifiers>
        <_>
          <internalNodes>
            0 -1 105 1.9795597836491652e-05</internalNodes>
          <leafValues>
            1.4893616735935211e-01 -8.7155961990356445e-01</leafValues></_>
        <_>
          <internalNodes>
            0 -1 85 1.3222653251432348e-05</internalNodes>
          <leafValues>
            3.1135690212249756e-01 -7.4936366081237793e-01</leafValues></_>
        <_>
          <internalNodes>
            0 -1 33 4.7574831114616245e-05</internalNodes>
          <leafValues>
            3.8461616635322571e-01 -6.2241113185882568e-01</leafValues></_>
        <_>
          <internalNodes>
            0 -1 32 -2.9479231685400009e-02</internalNodes>
          <leafValues>
            6.2999880313873291e-01 -3.8620576262474060e-01</leafValues></_>
        <_>
          <internalNodes>
            0 -1 0 4.4929772615432739e-02</internalNodes>
          <leafValues>
            3.5751062631607056e-01 -8.3920937776565552e-01</leafValues></_>
        <_>
          <internalNodes>
            0 -1 27 9.2287752777338028e-03</internalNodes>
          <leafValues>
            -3.5330393910408020e-01 8.1753408908843994e-01</leafValues></_>
        <_>
          <internalNodes>
            0 -1 34 -1.4568822734872811e-05</internalNodes>
          <leafValues>
            -6.4721882343292236e-01 4.0915858745574951e-01</leafValues></_></weakClassifiers></_>
    <!-- stage 5 -->
    <_>
      <maxWeakCount>4</maxWeakCount>
      <stageThreshold>-7.2249966859817505e-01</stageThreshold>
      <weakClassifiers>
        <_>
          <internalNodes>
            0 -1 10 1.1145960343128536e-05</internalNodes>
          <leafValues>
            1.8644067645072937e-01 -8.3333331346511841e-01</leafValues></_>
        <_>
          <internalNodes>
            0 -1 69 -1.0073935845866799e-04</internalNodes>
          <leafValues>
            -8.5314214229583740e-01 2.6017516851425171e-01</leafValues></_>
        <_>
          <internalNodes>
            0 -1 82 5.3932070732116699e-03</internalNodes>
          <leafValues>
            -3.4367147088050842e-01 7.4959576129913330e-01</leafValues></_>
        <_>
          <internalNodes>
            0 -1 13 1.9040060578845441e-05</internalNodes>
          <leafValues>
            2.8787323832511902e-01 -9.0808182954788208e-01</leafValues></_></weakClassifiers></_>
    <!-- stage 6 -->
    <_>
      <maxWeakCount>5</maxWeakCount>
      <stageThreshold>-7.2849225997924805e-01</stageThreshold>
      <weakClassifiers>
        <_>
          <internalNodes>
            0 -1 17 1.8648670613765717e-01</internalNodes>
          <leafValues>
            -4.9541285634040833e-01 5.1898735761642456e-01</leafValues></_>
        <_>
          <internalNodes>
            0 -1 23 -1.7383262515068054e-02</internalNodes>
          <leafValues>
            7.3661434650421143e-01 -3.5400909185409546e-01</leafValues></_>
        <_>
          <internalNodes>
            0 -1 19 3.1298701651394367e-04</internalNodes>
          <leafValues>
            2.6011106371879578e-01 -9.3023002147674561e-01</leafValues></_>
        <_>
          <internalNodes>
            0 -1 39 8.1777467858046293e-04</internalNodes>
          <leafValues>
            -3.8873550295829773e-01 6.0500663518905640e-01</leafValues></_>
        <_>
          <internalNodes>
            0 -1 123 -7.5329298852011561e-05</internalNodes>
          <leafValues>
            -7.3784226179122925e-01 3.4927174448966980e-01</leafValues></_></weakClassifiers></_>
    <!-- stage 7 -->
    <_>
      <maxWeakCount>3</maxWeakCount>
      <stageThreshold>-6.1933422088623047e-01</stageThreshold>
      <weakClassifiers>
        <_>
          <internalNodes>
            0 -1 73 1.7992641078308225e-03</internalNodes>
          <leafValues>
            -6.2011170387268066e-01 3.7288135290145874e-01</leafValues></_>
        <_>
          <internalNodes>
            0 -1 65 2.7554770931601524e-03</internalNodes>
          <leafValues>
            -5.3178369998931885e-01 3.7877878546714783e-01</leafValues></_>
        <_>
          <internalNodes>
            0 -1 96 -3.6573531106114388e-03</internalNodes>
          <leafValues>
            6.2923032045364380e-01 -3.7800124287605286e-01</leafValues></_></weakClassifiers></_>
    <!-- stage 8 -->
    <_>
      <maxWeakCount>6</maxWeakCount>
      <stageThreshold>-8.5251861810684204e-01</stageThreshold>
      <weakClassifiers>
        <_>
          <internalNodes>
            0 -1 71 -2.4073079111985862e-04</internalNodes>
          <leafValues>
            3.0357143282890320e-01 -5.4594594240188599e-01</leafValues></_>
        <_>
          <internalNodes>
            0 -1 122 -4.5511096686823294e-06</internalNodes>
          <leafValues>
            -7.8153514862060547e-01 2.3580329120159149e-01</leafValues></_>
        <_>
          <internalNodes>
            0 -1 78 2.3701384197920561e-03</internalNodes>
          <leafValues>
            -2.8265315294265747e-01 7.8415191173553467e-01</leafValues></_>
        <_>
          <internalNodes>
            0 -1 97 -5.5896369740366936e-03</internalNodes>
          <leafValues>
            7.0836007595062256e-01 -3.0240270495414734e-01</leafValues></_>
        <_>
          <internalNodes>
            0 -1 99 -1.1734910309314728e-02</internalNodes>
          <leafValues>
            7.9473614692687988e-01 -1.9687856733798981e-01</leafValues></_>
        <_>
          <internalNodes>
            0 -1 109 1.1603108578128740e-04</internalNodes>
          <leafValues>
            2.3955850303173065e-01 -9.6258097887039185e-01</leafValues></_></weakClassifiers></_>
    <!-- stage 9 -->
    <_>
      <maxWeakCount>5</maxWeakCount>
      <stageThreshold>-5.2918034791946411e-01</stageThreshold>
      <weakClassifiers>
        <_>
          <internalNodes>
            0 -1 12 1.4071425539441407e-04</internalNodes>
          <leafValues>
            2.8846153989434242e-02 -8.2022470235824585e-01</leafValues></_>
        <_>
          <internalNodes>
            0 -1 9 1.8364540665061213e-05</internalNodes>
          <leafValues>
            1.5018936991691589e-01 -7.9509073495864868e-01</leafValues></_>
        <_>
          <internalNodes>
            0 -1 113 -4.7760065644979477e-03</internalNodes>
          <leafValues>
            1. -1.8024139106273651e-01</leafValues></_>
        <_>
          <internalNodes>
            0 -1 129 4.9930495151784271e-05</internalNodes>
          <leafValues>
            2.4655663967132568e-01 -7.8044277429580688e-01</leafValues></_>
        <_>
          <internalNodes>
            0 -1 68 7.6125568011775613e-04</internalNodes>
          <leafValues>
            2.5246828794479370e-01 -7.6889407634735107e-01</leafValues></_></weakClassifiers></_>
    <!-- stage 10 -->
    <_>
      <maxWeakCount>8</maxWeakCount>
      <stageThreshold>-7.7518028020858765e-01</stageThreshold>
      <weakClassifiers>
        <_>
          <internalNodes>
            0 -1 60 -3.5429261624813080e-02</internalNodes>
          <leafValues>
            6.4912283420562744e-01 -4.3333333730697632e-01</leafValues></_>
        <_>
          <internalNodes>
            0 -1 98 -1.3120279181748629e-03</internalNodes>
          <leafValues>
            7.1699744462966919e-01 -3.1318116188049316e-01</leafValues></_>
        <_>
          <internalNodes>
            0 -1 118 -1.5238724881783128e-04</internalNodes>
          <leafValues>
            5.3040736913681030e-01 -2.7114894986152649e-01</leafValues></_>
        <_>
          <internalNodes>
            0 -1 87 2.0952758495695889e-04</internalNodes>
          <leafValues>
            -3.6573937535285950e-01 4.3515887856483459e-01</leafValues></_>
        <_>
          <internalNodes>
            0 -1 125 5.5901196901686490e-05</internalNodes>
          <leafValues>
            1.9740416109561920e-01 -9.1403055191040039e-01</leafValues></_>
        <_>
          <internalNodes>
            0 -1 55 -3.8579185493290424e-03</internalNodes>
          <leafValues>
            7.8332799673080444e-01 -2.8627738356590271e-01</leafValues></_>
        <_>
          <internalNodes>
            0 -1 94 -4.0598231134936213e-04</internalNodes>
          <leafValues>
            -7.8807449340820313e-01 2.7439916133880615e-01</leafValues></_>
        <_>
          <internalNodes>
            0 -1 16 -1.3550769072026014e-03</internalNodes>
          <leafValues>
            6.4702004194259644e-01 -3.4988111257553101e-01</leafValues></_></weakClassifiers></_>
    <!-- stage 11 -->
    <_>
      <maxWeakCount>8</maxWeakCount>
      <stageThreshold>-5.8506631851196289e-01</stageThreshold>
      <weakClassifiers>
        <_>
          <internalNodes>
            0 -1 67 -1.2048534117639065e-02</internalNodes>
          <leafValues>
            3.8461539149284363e-01 -4.9514561891555786e-01</leafValues></_>
        <_>
          <internalNodes>
            0 -1 79 -8.6884936317801476e-03</internalNodes>
          <leafValues>
            7.3605328798294067e-01 -2.2900138795375824e-01</leafValues></_>
        <_>
          <internalNodes>
            0 -1 83 -1.3538162223994732e-02</internalNodes>
          <leafValues>
            5.1518017053604126e-01 -2.8653141856193542e-01</leafValues></_>
        <_>
          <internalNodes>
            0 -1 2 1.7277263395953923e-05</internalNodes>
          <leafValues>
            2.1207360923290253e-01 -7.9707008600234985e-01</leafValues></_>
        <_>
          <internalNodes>
            0 -1 26 -5.4322386858984828e-04</internalNodes>
          <leafValues>
            4.0538218617439270e-01 -4.0104681253433228e-01</leafValues></_>
        <_>
          <internalNodes>
            0 -1 40 3.8246263284236193e-04</internalNodes>
          <leafValues>
            -2.8555008769035339e-01 5.1678371429443359e-01</leafValues></_>
        <_>
          <internalNodes>
            0 -1 121 2.2035567089915276e-03</internalNodes>
          <leafValues>
            -2.6869294047355652e-01 5.6578975915908813e-01</leafValues></_>
        <_>
          <internalNodes>
            0 -1 75 4.1701914597069845e-06</internalNodes>
          <leafValues>
            -4.3521702289581299e-01 3.7382793426513672e-01</leafValues></_></weakClassifiers></_>
    <!-- stage 12 -->
    <_>
      <maxWeakCount>7</maxWeakCount>
      <stageThreshold>-8.7625557184219360e-01</stageThreshold>
      <weakClassifiers>
        <_>
          <internalNodes>
            0 -1 93 2.2418238222599030e-03</internalNodes>
          <leafValues>
            -3.6641222238540649e-01 8.2857143878936768e-01</leafValues></_>
        <_>
          <internalNodes>
            0 -1 111 -1.2947944924235344e-04</internalNodes>
          <leafValues>
            5.0672882795333862e-01 -2.9682710766792297e-01</leafValues></_>
        <_>
          <internalNodes>
            0 -1 8 -2.2849235683679581e-02</internalNodes>
          <leafValues>
            8.9688867330551147e-01 -1.8563525378704071e-01</leafValues></_>
        <_>
          <internalNodes>
            0 -1 103 1.5778586384840310e-04</internalNodes>
          <leafValues>
            -3.9337119460105896e-01 4.2887234687805176e-01</leafValues></_>
        <_>
          <internalNodes>
            0 -1 25 -4.3855238800460938e-06</internalNodes>
          <leafValues>
            -5.9520816802978516e-01 2.8475484251976013e-01</leafValues></_>
        <_>
          <internalNodes>
            0 -1 57 2.0857322961091995e-03</internalNodes>
          <leafValues>
            -3.2891240715980530e-01 5.7396590709686279e-01</leafValues></_>
        <_>
          <internalNodes>
            0 -1 31 -1.0606089199427515e-04</internalNodes>
          <leafValues>
            4.9434852600097656e-01 -4.1209575533866882e-01</leafValues></_></weakClassifiers></_>
    <!-- stage 13 -->
    <_>
      <maxWeakCount>8</maxWeakCount>
      <stageThreshold>-6.5050899982452393e-01</stageThreshold>
      <weakClassifiers>
        <_>
          <internalNodes>
            0 -1 52 -2.1734015643596649e-01</internalNodes>
          <leafValues>
            9.2857140302658081e-01 -3.4572491049766541e-01</leafValues></_>
        <_>
          <internalNodes>
            0 -1 114 -9.5261186361312866e-03</internalNodes>
          <leafValues>
            6.7695987224578857e-01 -2.6828610897064209e-01</leafValues></_>
        <_>
          <internalNodes>
            0 -1 62 -1.9824102520942688e-02</internalNodes>
          <leafValues>
            7.7982282638549805e-01 -1.6550296545028687e-01</leafValues></_>
        <_>
          <internalNodes>
            0 -1 101 6.3622952438890934e-04</internalNodes>
          <leafValues>
            -2.5165596604347229e-01 6.6003626585006714e-01</leafValues></_>
        <_>
          <internalNodes>
            0 -1 35 6.1476339396904223e-06</internalNodes>
          <leafValues>
            2.8309696912765503e-01 -7.2914153337478638e-01</leafValues></_>
        <_>
          <internalNodes>
            0 -1 22 3.4333691000938416e-02</internalNodes>
          <leafValues>
            -2.1840746700763702e-01 6.9383740425109863e-01</leafValues></_>
        <_>
          <internalNodes>
            0 -1 70 1.5684546902775764e-02</internalNodes>
          <leafValues>
            -2.5392231345176697e-01 6.8691933155059814e-01</leafValues></_>
        <_>
          <internalNodes>
            0 -1 58 3.6292157601565123e-03</internalNodes>
          <leafValues>
            -2.7040156722068787e-01 6.6793274879455566e-01</leafValues></_></weakClassifiers></_>
    <!-- stage 14 -->
    <_>
      <maxWeakCount>8</maxWeakCount>
      <stageThreshold>-7.9419171810150146e-01</stageThreshold>
      <weakClassifiers>
        <_>
          <internalNodes>
            0 -1 47 3.7186063826084137e-02</internalNodes>
          <leafValues>
            -4.3891403079032898e-01 3.9473685622215271e-01</leafValues></_>
        <_>
          <internalNodes>
            0 -1 3 -6.9136542151682079e-05</internalNodes>
          <leafValues>
            -5.2626317739486694e-01 3.5163438320159912e-01</leafValues></_>
        <_>
          <internalNodes>
            0 -1 1 -1.2363381392788142e-04</internalNodes>
          <leafValues>
            -6.9695281982421875e-01 2.2178794443607330e-01</leafValues></_>
        <_>
          <internalNodes>
            0 -1 49 3.7081040441989899e-02</internalNodes>
          <leafValues>
            -2.5308290123939514e-01 7.6893562078475952e-01</leafValues></_>
        <_>
          <internalNodes>
            0 -1 102 4.1058476199395955e-04</internalNodes>
          <leafValues>
            -2.4637767672538757e-01 5.9485852718353271e-01</leafValues></_>
        <_>
          <internalNodes>
            0 -1 5 -9.7779571660794318e-05</internalNodes>
          <leafValues>
            -6.6597509384155273e-01 2.6138690114021301e-01</leafValues></_>
        <_>
          <internalNodes>
            0 -1 24 -1.3364948332309723e-02</internalNodes>
          <leafValues>
            7.7482062578201294e-01 -1.9648386538028717e-01</leafValues></_>
        <_>
          <internalNodes>
            0 -1 117 6.6453663748688996e-05</internalNodes>
          <leafValues>
            -3.7239122390747070e-01 5.0945639610290527e-01</leafValues></_></weakClassifiers></_>
    <!-- stage 15 -->
    <_>
      <maxWeakCount>9</maxWeakCount>
      <stageThreshold>-8.1427729129791260e-01</stageThreshold>
      <weakClassifiers>
        <_>
          <internalNodes>
            0 -1 53 -1.6055309772491455e-01</internalNodes>
          <leafValues>
            8.1818181276321411e-01 -3.5606059432029724e-01</leafValues></_>
        <_>
          <internalNodes>
            0 -1 28 -8.4530785679817200e-02</internalNodes>
          <leafValues>
            7.2603613138198853e-01 -2.6185119152069092e-01</leafValues></_>
        <_>
          <internalNodes>
            0 -1 120 -4.0004780748859048e-04</internalNodes>
          <leafValues>
            -8.1961977481842041e-01 2.7032932639122009e-01</leafValues></_>
        <_>
          <internalNodes>
            0 -1 119 -2.7880691050086170e-05</internalNodes>
          <leafValues>
            5.5666214227676392e-01 -2.6630893349647522e-01</leafValues></_>
        <_>
          <internalNodes>
            0 -1 56 8.8985204696655273e-02</internalNodes>
          <leafValues>
            -4.2800369858741760e-01 4.2557600140571594e-01</leafValues></_>
        <_>
          <internalNodes>
            0 -1 42 -8.5611740360036492e-05</internalNodes>
          <leafValues>
            -4.5264050364494324e-01 3.6814826726913452e-01</leafValues></_>
        <_>
          <internalNodes>
            0 -1 29 -3.5673139791470021e-05</internalNodes>
          <leafValues>
            3.7044176459312439e-01 -3.9171484112739563e-01</leafValues></_>
        <_>
          <internalNodes>
            0 -1 116 -1.2425174005329609e-02</internalNodes>
          <leafValues>
            7.9245287179946899e-01 -2.1935451030731201e-01</leafValues></_>
        <_>
          <internalNodes>
            0 -1 74 -1.0491418652236462e-03</internalNodes>
          <leafValues>
            5.2917110919952393e-01 -3.2284599542617798e-01</leafValues></_></weakClassifiers></_>
    <!-- stage 16 -->
    <_>
      <maxWeakCount>6</maxWeakCount>
      <stageThreshold>-1.1023039817810059e+00</stageThreshold>
      <weakClassifiers>
        <_>
          <internalNodes>
            0 -1 48 7.9234950244426727e-03</internalNodes>
          <leafValues>
            -3.9837399125099182e-01 6.0784316062927246e-01</leafValues></_>
        <_>
          <internalNodes>
            0 -1 100 -1.0795271955430508e-03</internalNodes>
          <leafValues>
            3.7696680426597595e-01 -4.1772803664207458e-01</leafValues></_>
        <_>
          <internalNodes>
            0 -1 50 3.6164585617370903e-04</internalNodes>
          <leafValues>
            2.8202921152114868e-01 -5.5978423357009888e-01</leafValues></_>
        <_>
          <internalNodes>
            0 -1 76 8.5871361079625785e-05</internalNodes>
          <leafValues>
            2.4497142434120178e-01 -6.9635069370269775e-01</leafValues></_>
        <_>
          <internalNodes>
            0 -1 63 1.2554116547107697e-03</internalNodes>
          <leafValues>
            -2.5617629289627075e-01 7.6264637708663940e-01</leafValues></_>
        <_>
          <internalNodes>
            0 -1 51 -1.0245466910419054e-05</internalNodes>
          <leafValues>
            -6.3452690839767456e-01 3.1433761119842529e-01</leafValues></_></weakClassifiers></_>
    <!-- stage 17 -->
    <_>
      <maxWeakCount>9</maxWeakCount>
      <stageThreshold>-8.3482062816619873e-01</stageThreshold>
      <weakClassifiers>
        <_>
          <internalNodes>
            0 -1 108 -5.1608285866677761e-03</internalNodes>
          <leafValues>
            2.8712871670722961e-01 -4.8979592323303223e-01</leafValues></_>
        <_>
          <internalNodes>
            0 -1 80 8.2892589271068573e-03</internalNodes>
          <leafValues>
            -2.4172440171241760e-01 6.1250197887420654e-01</leafValues></_>
        <_>
          <internalNodes>
            0 -1 124 -1.2075643098796718e-05</internalNodes>
          <leafValues>
            4.0783652663230896e-01 -3.3690023422241211e-01</leafValues></_>
        <_>
          <internalNodes>
            0 -1 21 -1.3668598234653473e-01</internalNodes>
          <leafValues>
            7.0066469907760620e-01 -1.6961163282394409e-01</leafValues></_>
        <_>
          <internalNodes>
            0 -1 64 2.2843476384878159e-02</internalNodes>
          <leafValues>
            -2.1011105179786682e-01 5.6777322292327881e-01</leafValues></_>
        <_>
          <internalNodes>
            0 -1 106 1.3800783199258149e-04</internalNodes>
          <leafValues>
            2.1968582272529602e-01 -6.4323133230209351e-01</leafValues></_>
        <_>
          <internalNodes>
            0 -1 44 -1.9858448649756610e-04</internalNodes>
          <leafValues>
            5.0795322656631470e-01 -3.5014584660530090e-01</leafValues></_>
        <_>
          <internalNodes>
            0 -1 59 1.7558594699949026e-03</internalNodes>
          <leafValues>
            1.9711259007453918e-01 -6.9580399990081787e-01</leafValues></_>
        <_>
          <internalNodes>
            0 -1 18 -1.3995496556162834e-03</internalNodes>
          <leafValues>
            8.9717608690261841e-01 -1.9324867427349091e-01</leafValues></_></weakClassifiers></_>
    <!-- stage 18 -->
    <_>
      <maxWeakCount>8</maxWeakCount>
      <stageThreshold>-8.4590518474578857e-01</stageThreshold>
      <weakClassifiers>
        <_>
          <internalNodes>
            0 -1 46 -4.7379869967699051e-02</internalNodes>
          <leafValues>
            6.7441862821578979e-01 -3.7795275449752808e-01</leafValues></_>
        <_>
          <internalNodes>
            0 -1 43 -2.4701141228433698e-05</internalNodes>
          <leafValues>
            4.6824622154235840e-01 -2.6950192451477051e-01</leafValues></_>
        <_>
          <internalNodes>
            0 -1 61 4.6707544242963195e-04</internalNodes>
          <leafValues>
            1.7576876282691956e-01 -7.3125928640365601e-01</leafValues></_>
        <_>
          <internalNodes>
            0 -1 104 -5.0538943469291553e-05</internalNodes>
          <leafValues>
            4.3362808227539063e-01 -2.9666900634765625e-01</leafValues></_>
        <_>
          <internalNodes>
            0 -1 54 2.3947174195200205e-03</internalNodes>
          <leafValues>
            -2.0345683395862579e-01 7.4113023281097412e-01</leafValues></_>
        <_>
          <internalNodes>
            0 -1 6 5.3284769819583744e-05</internalNodes>
          <leafValues>
            2.5755649805068970e-01 -5.7458782196044922e-01</leafValues></_>
        <_>
          <internalNodes>
            0 -1 15 -9.5495684945490211e-05</internalNodes>
          <leafValues>
            5.4376471042633057e-01 -2.7590209245681763e-01</leafValues></_>
        <_>
          <internalNodes>
            0 -1 126 -1.2866761535406113e-03</internalNodes>
          <leafValues>
            -9.2468142509460449e-01 1.4425216615200043e-01</leafValues></_></weakClassifiers></_>
    <!-- stage 19 -->
    <_>
      <maxWeakCount>10</maxWeakCount>
      <stageThreshold>-8.2061696052551270e-01</stageThreshold>
      <weakClassifiers>
        <_>
          <internalNodes>
            0 -1 127 -1.3299215424922295e-05</internalNodes>
          <leafValues>
            2.4137930572032928e-01 -5.2486187219619751e-01</leafValues></_>
        <_>
          <internalNodes>
            0 -1 81 9.2856687842868268e-05</internalNodes>
          <leafValues>
            1.3548111915588379e-01 -7.9360538721084595e-01</leafValues></_>
        <_>
          <internalNodes>
            0 -1 72 3.3106263726949692e-03</internalNodes>
          <leafValues>
            2.5548493862152100e-01 -5.7257372140884399e-01</leafValues></_>
        <_>
          <internalNodes>
            0 -1 128 -1.3692687207367271e-04</internalNodes>
          <leafValues>
            7.7765053510665894e-01 -2.2619770467281342e-01</leafValues></_>
        <_>
          <internalNodes>
            0 -1 14 -6.3977241516113281e-02</internalNodes>
          <leafValues>
            -7.6212590932846069e-01 2.0227758586406708e-01</leafValues></_>
        <_>
          <internalNodes>
            0 -1 7 3.8494855165481567e-02</internalNodes>
          <leafValues>
            2.4631041288375854e-01 -7.0185619592666626e-01</leafValues></_>
        <_>
          <internalNodes>
            0 -1 112 1.9838771549984813e-04</internalNodes>
          <leafValues>
            -3.0869364738464355e-01 5.3429812192916870e-01</leafValues></_>
        <_>
          <internalNodes>
            0 -1 95 -1.5122164768399671e-05</internalNodes>
          <leafValues>
            -8.0806124210357666e-01 1.9776202738285065e-01</leafValues></_>
        <_>
          <internalNodes>
            0 -1 110 -2.7397650410421193e-04</internalNodes>
          <leafValues>
            5.1053822040557861e-01 -3.3782467246055603e-01</leafValues></_>
        <_>
          <internalNodes>
            0 -1 91 7.2667159838601947e-04</internalNodes>
          <leafValues>
            -2.9752358794212341e-01 6.0172939300537109e-01</leafValues></_></weakClassifiers></_></stages>
  <features>
    <_>
      <rects>
        <_>
          0 0 28 10 -1.</_>
        <_>
          14 0 14 10 2.</_></rects>
      <tilted>0</tilted></_>
    <_>
      <rects>
        <_>
          0 0 20 3 -1.</_>
        <_>
          0 1 20 1 3.</_></rects>
      <tilted>0</tilted></_>
    <_>
      <rects>
        <_>
          0 1 6 2 -1.</_>
        <_>
          0 1 3 1 2.</_>
        <_>
          3 2 3 1 2.</_></rects>
      <tilted>0</tilted></_>
    <_>
      <rects>
        <_>
          0 1 19 4 -1.</_>
        <_>
          0 3 19 2 2.</_></rects>
      <tilted>0</tilted></_>
    <_>
      <rects>
        <_>
          0 7 8 27 -1.</_>
        <_>
          4 7 4 27 2.</_></rects>
      <tilted>0</tilted></_>
    <_>
      <rects>
        <_>
          0 17 4 2 -1.</_>
        <_>
          0 17 2 1 2.</_>
        <_>
          2 18 2 1 2.</_></rects>
      <tilted>0</tilted></_>
    <_>
      <rects>
        <_>
          0 19 2 3 -1.</_>
        <_>
          0 20 2 1 3.</_></rects>
      <tilted>0</tilted></_>
    <_>
      <rects>
        <_>
          0 20 28 16 -1.</_>
        <_>
          0 20 14 8 2.</_>
        <_>
          14 28 14 8 2.</_></rects>
      <tilted>0</tilted></_>
    <_>
      <rects>
        <_>
          0 33 22 3 -1.</_>
        <_>
          0 34 22 1 3.</_></rects>
      <tilted>0</tilted></_>
    <_>
      <rects>
        <_>
          0 35 9 3 -1.</_>
        <_>
          3 35 3 3 3.</_></rects>
      <tilted>0</tilted></_>
    <_>
      <rects>
        <_>
          0 37 30 2 -1.</_>
        <_>
          10 37 10 2 3.</_></rects>
      <tilted>0</tilted></_>
    <_>
      <rects>
        <_>
          0 38 12 1 -1.</_>
        <_>
          4 38 4 1 3.</_></rects>
      <tilted>0</tilted></_>
    <_>
      <rects>
        <_>
          0 38 20 2 -1.</_>
        <_>
          10 38 10 2 2.</_></rects>
      <tilted>0</tilted></_>
    <_>
      <rects>
        <_>
          1 0 3 2 -1.</_>
        <_>
          1 1 3 1 2.</_></rects>
      <tilted>0</tilted></_>
    <_>
      <rects>
        <_>
          1 8 28 32 -1.</_>
        <_>
          1 8 14 16 2.</_>
        <_>
          15 24 14 16 2.</_></rects>
      <tilted>0</tilted></_>
    <_>
      <rects>
        <_>
          1 11 2 3 -1.</_>
        <_>
          2 11 1 3 2.</_></rects>
      <tilted>0</tilted></_>
    <_>
      <rects>
        <_>
          1 21 3 6 -1.</_>
        <_>
          1 23 3 2 3.</_></rects>
      <tilted>0</tilted></_>
    <_>
      <rects>
        <_>
          1 24 27 16 -1.</_>
        <_>
          1 32 27 8 2.</_></rects>
      <tilted>0</tilted></_>
    <_>
      <rects>
        <_>
          1 30 10 2 -1.</_>
        <_>
          1 30 5 1 2.</_>
        <_>
          6 31 5 1 2.</_></rects>
      <tilted>0</tilted></_>
    <_>
      <rects>
        <_>
          1 36 24 2 -1.</_>
        <_>
          1 37 24 1 2.</_></rects>
      <tilted>0</tilted></_>
    <_>
      <rects>
        <_>
          2 0 21 14 -1.</_>
        <_>
          2 7 21 7 2.</_></rects>
      <tilted>0</tilted></_>
    <_>
      <rects>
        <_>
          2 6 27 13 -1.</_>
        <_>
          11 6 9 13 3.</_></rects>
      <tilted>0</tilted></_>
    <_>
      <rects>
        <_>
          2 7 12 28 -1.</_>
        <_>
          2 7 6 14 2.</_>
        <_>
          8 21 6 14 2.</_></rects>
      <tilted>0</tilted></_>
    <_>
      <rects>
        <_>
          2 28 10 12 -1.</_>
        <_>
          2 32 10 4 3.</_></rects>
      <tilted>0</tilted></_>
    <_>
      <rects>
        <_>
          2 30 10 5 -1.</_>
        <_>
          7 30 5 5 2.</_></rects>
      <tilted>0</tilted></_>
    <_>
      <rects>
        <_>
          2 35 14 2 -1.</_>
        <_>
          2 35 7 1 2.</_>
        <_>
          9 36 7 1 2.</_></rects>
      <tilted>0</tilted></_>
    <_>
      <rects>
        <_>
          3 6 4 10 -1.</_>
        <_>
          5 6 2 10 2.</_></rects>
      <tilted>0</tilted></_>
    <_>
      <rects>
        <_>
          3 14 21 6 -1.</_>
        <_>
          3 16 21 2 3.</_></rects>
      <tilted>0</tilted></_>
    <_>
      <rects>
        <_>
          3 23 22 12 -1.</_>
        <_>
          3 29 22 6 2.</_></rects>
      <tilted>0</tilted></_>
    <_>
      <rects>
        <_>
          3 26 3 11 -1.</_>
        <_>
          4 26 1 11 3.</_></rects>
      <tilted>0</tilted></_>
    <_>
      <rects>
        <_>
          3 26 27 14 -1.</_>
        <_>
          3 33 27 7 2.</_></rects>
      <tilted>0</tilted></_>
    <_>
      <rects>
        <_>
          4 7 4 30 -1.</_>
        <_>
          4 7 2 15 2.</_>
        <_>
          6 22 2 15 2.</_></rects>
      <tilted>0</tilted></_>
    <_>
      <rects>
        <_>
          4 29 26 9 -1.</_>
        <_>
          4 32 26 3 3.</_></rects>
      <tilted>0</tilted></_>
    <_>
      <rects>
        <_>
          4 32 9 6 -1.</_>
        <_>
          4 34 9 2 3.</_></rects>
      <tilted>0</tilted></_>
    <_>
      <rects>
        <_>
          4 37 2 2 -1.</_>
        <_>
          5 37 1 2 2.</_></rects>
      <tilted>0</tilted></_>
    <_>
      <rects>
        <_>
          4 37 15 2 -1.</_>
        <_>
          9 37 5 2 3.</_></rects>
      <tilted>0</tilted></_>
    <_>
      <rects>
        <_>
          4 37 14 2 -1.</_>
        <_>
          11 37 7 2 2.</_></rects>
      <tilted>0</tilted></_>
    <_>
      <rects>
        <_>
          5 1 15 2 -1.</_>
        <_>
          10 1 5 2 3.</_></rects>
      <tilted>0</tilted></_>
    <_>
      <rects>
        <_>
          5 19 19 6 -1.</_>
        <_>
          5 21 19 2 3.</_></rects>
      <tilted>0</tilted></_>
    <_>
      <rects>
        <_>
          5 26 6 6 -1.</_>
        <_>
          5 28 6 2 3.</_></rects>
      <tilted>0</tilted></_>
    <_>
      <rects>
        <_>
          5 28 1 6 -1.</_>
        <_>
          5 30 1 2 3.</_></rects>
      <tilted>0</tilted></_>
    <_>
      <rects>
        <_>
          5 29 14 9 -1.</_>
        <_>
          5 32 14 3 3.</_></rects>
      <tilted>0</tilted></_>
    <_>
      <rects>
        <_>
          6 8 4 8 -1.</_>
        <_>
          6 8 2 4 2.</_>
        <_>
          8 12 2 4 2.</_></rects>
      <tilted>0</tilted></_>
    <_>
      <rects>
        <_>
          6 33 4 2 -1.</_>
        <_>
          6 34 4 1 2.</_></rects>
      <tilted>0</tilted></_>
    <_>
      <rects>
        <_>
          6 33 13 3 -1.</_>
        <_>
          6 34 13 1 3.</_></rects>
      <tilted>0</tilted></_>
    <_>
      <rects>
        <_>
          6 37 8 1 -1.</_>
        <_>
          10 37 4 1 2.</_></rects>
      <tilted>0</tilted></_>
    <_>
      <rects>
        <_>
          7 0 2 33 -1.</_>
        <_>
          7 11 2 11 3.</_></rects>
      <tilted>0</tilted></_>
    <_>
      <rects>
        <_>
          7 10 18 16 -1.</_>
        <_>
          13 10 6 16 3.</_></rects>
      <tilted>0</tilted></_>
    <_>
      <rects>
        <_>
          7 13 1 20 -1.</_>
        <_>
          7 23 1 10 2.</_></rects>
      <tilted>0</tilted></_>
    <_>
      <rects>
        <_>
          7 17 16 12 -1.</_>
        <_>
          7 21 16 4 3.</_></rects>
      <tilted>0</tilted></_>
    <_>
      <rects>
        <_>
          7 29 12 8 -1.</_>
        <_>
          7 29 6 4 2.</_>
        <_>
          13 33 6 4 2.</_></rects>
      <tilted>0</tilted></_>
    <_>
      <rects>
        <_>
          7 35 21 5 -1.</_>
        <_>
          14 35 7 5 3.</_></rects>
      <tilted>0</tilted></_>
    <_>
      <rects>
        <_>
          8 4 7 36 -1.</_>
        <_>
          8 16 7 12 3.</_></rects>
      <tilted>0</tilted></_>
    <_>
      <rects>
        <_>
          8 10 11 27 -1.</_>
        <_>
          8 19 11 9 3.</_></rects>
      <tilted>0</tilted></_>
    <_>
      <rects>
        <_>
          8 11 9 3 -1.</_>
        <_>
          8 12 9 1 3.</_></rects>
      <tilted>0</tilted></_>
    <_>
      <rects>
        <_>
          8 15 6 4 -1.</_>
        <_>
          11 15 3 4 2.</_></rects>
      <tilted>0</tilted></_>
    <_>
      <rects>
        <_>
          8 22 14 18 -1.</_>
        <_>
          8 31 14 9 2.</_></rects>
      <tilted>0</tilted></_>
    <_>
      <rects>
        <_>
          9 9 21 4 -1.</_>
        <_>
          9 11 21 2 2.</_></rects>
      <tilted>0</tilted></_>
    <_>
      <rects>
        <_>
          9 12 6 7 -1.</_>
        <_>
          11 12 2 7 3.</_></rects>
      <tilted>0</tilted></_>
    <_>
      <rects>
        <_>
          9 30 12 4 -1.</_>
        <_>
          9 30 6 2 2.</_>
        <_>
          15 32 6 2 2.</_></rects>
      <tilted>0</tilted></_>
    <_>
      <rects>
        <_>
          10 1 6 15 -1.</_>
        <_>
          10 6 6 5 3.</_></rects>
      <tilted>0</tilted></_>
    <_>
      <rects>
        <_>
          10 2 6 6 -1.</_>
        <_>
          12 2 2 6 3.</_></rects>
      <tilted>0</tilted></_>
    <_>
      <rects>
        <_>
          10 3 13 4 -1.</_>
        <_>
          10 5 13 2 2.</_></rects>
      <tilted>0</tilted></_>
    <_>
      <rects>
        <_>
          10 11 1 6 -1.</_>
        <_>
          10 13 1 2 3.</_></rects>
      <tilted>0</tilted></_>
    <_>
      <rects>
        <_>
          10 15 12 14 -1.</_>
        <_>
          14 15 4 14 3.</_></rects>
      <tilted>0</tilted></_>
    <_>
      <rects>
        <_>
          10 15 8 23 -1.</_>
        <_>
          14 15 4 23 2.</_></rects>
      <tilted>0</tilted></_>
    <_>
      <rects>
        <_>
          11 9 4 12 -1.</_>
        <_>
          11 15 4 6 2.</_></rects>
      <tilted>0</tilted></_>
    <_>
      <rects>
        <_>
          11 30 19 9 -1.</_>
        <_>
          11 33 19 3 3.</_></rects>
      <tilted>0</tilted></_>
    <_>
      <rects>
        <_>
          12 0 18 1 -1.</_>
        <_>
          18 0 6 1 3.</_></rects>
      <tilted>0</tilted></_>
    <_>
      <rects>
        <_>
          12 4 8 1 -1.</_>
        <_>
          16 4 4 1 2.</_></rects>
      <tilted>0</tilted></_>
    <_>
      <rects>
        <_>
          12 5 6 9 -1.</_>
        <_>
          12 8 6 3 3.</_></rects>
      <tilted>0</tilted></_>
    <_>
      <rects>
        <_>
          12 8 3 11 -1.</_>
        <_>
          13 8 1 11 3.</_></rects>
      <tilted>0</tilted></_>
    <_>
      <rects>
        <_>
          12 16 6 10 -1.</_>
        <_>
          12 16 3 5 2.</_>
        <_>
          15 21 3 5 2.</_></rects>
      <tilted>0</tilted></_>
    <_>
      <rects>
        <_>
          12 28 3 12 -1.</_>
        <_>
          12 34 3 6 2.</_></rects>
      <tilted>0</tilted></_>
    <_>
      <rects>
        <_>
          12 31 16 8 -1.</_>
        <_>
          12 31 8 4 2.</_>
        <_>
          20 35 8 4 2.</_></rects>
      <tilted>0</tilted></_>
    <_>
      <rects>
        <_>
          13 1 6 11 -1.</_>
        <_>
          16 1 3 11 2.</_></rects>
      <tilted>0</tilted></_>
    <_>
      <rects>
        <_>
          13 4 9 1 -1.</_>
        <_>
          16 4 3 1 3.</_></rects>
      <tilted>0</tilted></_>
    <_>
      <rects>
        <_>
          13 8 5 6 -1.</_>
        <_>
          13 10 5 2 3.</_></rects>
      <tilted>0</tilted></_>
    <_>
      <rects>
        <_>
          13 9 1 9 -1.</_>
        <_>
          13 12 1 3 3.</_></rects>
      <tilted>0</tilted></_>
    <_>
      <rects>
        <_>
          13 9 7 6 -1.</_>
        <_>
          13 11 7 2 3.</_></rects>
      <tilted>0</tilted></_>
    <_>
      <rects>
        <_>
          13 14 15 6 -1.</_>
        <_>
          13 16 15 2 3.</_></rects>
      <tilted>0</tilted></_>
    <_>
      <rects>
        <_>
          14 0 6 1 -1.</_>
        <_>
          16 0 2 1 3.</_></rects>
      <tilted>0</tilted></_>
    <_>
      <rects>
        <_>
          14 8 6 6 -1.</_>
        <_>
          14 10 6 2 3.</_></rects>
      <tilted>0</tilted></_>
    <_>
      <rects>
        <_>
          14 14 16 12 -1.</_>
        <_>
          14 14 8 6 2.</_>
        <_>
          22 20 8 6 2.</_></rects>
      <tilted>0</tilted></_>
    <_>
      <rects>
        <_>
          14 16 3 2 -1.</_>
        <_>
          15 16 1 2 3.</_></rects>
      <tilted>0</tilted></_>
    <_>
      <rects>
        <_>
          14 36 8 4 -1.</_>
        <_>
          14 38 8 2 2.</_></rects>
      <tilted>0</tilted></_>
    <_>
      <rects>
        <_>
          15 1 11 18 -1.</_>
        <_>
          15 10 11 9 2.</_></rects>
      <tilted>0</tilted></_>
    <_>
      <rects>
        <_>
          15 12 12 2 -1.</_>
        <_>
          15 13 12 1 2.</_></rects>
      <tilted>0</tilted></_>
    <_>
      <rects>
        <_>
          15 14 2 12 -1.</_>
        <_>
          15 20 2 6 2.</_></rects>
      <tilted>0</tilted></_>
    <_>
      <rects>
        <_>
          15 28 2 6 -1.</_>
        <_>
          15 30 2 2 3.</_></rects>
      <tilted>0</tilted></_>
    <_>
      <rects>
        <_>
          16 1 2 4 -1.</_>
        <_>
          17 1 1 4 2.</_></rects>
      <tilted>0</tilted></_>
    <_>
      <rects>
        <_>
          16 12 6 4 -1.</_>
        <_>
          16 12 3 2 2.</_>
        <_>
          19 14 3 2 2.</_></rects>
      <tilted>0</tilted></_>
    <_>
      <rects>
        <_>
          16 15 6 2 -1.</_>
        <_>
          18 15 2 2 3.</_></rects>
      <tilted>0</tilted></_>
    <_>
      <rects>
        <_>
          16 27 1 6 -1.</_>
        <_>
          16 29 1 2 3.</_></rects>
      <tilted>0</tilted></_>
    <_>
      <rects>
        <_>
          16 37 14 1 -1.</_>
        <_>
          23 37 7 1 2.</_></rects>
      <tilted>0</tilted></_>
    <_>
      <rects>
        <_>
          17 1 3 2 -1.</_>
        <_>
          18 1 1 2 3.</_></rects>
      <tilted>0</tilted></_>
    <_>
      <rects>
        <_>
          17 1 6 20 -1.</_>
        <_>
          19 1 2 20 3.</_></rects>
      <tilted>0</tilted></_>
    <_>
      <rects>
        <_>
          17 9 2 9 -1.</_>
        <_>
          17 12 2 3 3.</_></rects>
      <tilted>0</tilted></_>
    <_>
      <rects>
        <_>
          17 10 1 4 -1.</_>
        <_>
          17 12 1 2 2.</_></rects>
      <tilted>0</tilted></_>
    <_>
      <rects>
        <_>
          18 11 9 19 -1.</_>
        <_>
          21 11 3 19 3.</_></rects>
      <tilted>0</tilted></_>
    <_>
      <rects>
        <_>
          18 11 8 9 -1.</_>
        <_>
          18 14 8 3 3.</_></rects>
      <tilted>0</tilted></_>
    <_>
      <rects>
        <_>
          18 13 6 1 -1.</_>
        <_>
          20 13 2 1 3.</_></rects>
      <tilted>0</tilted></_>
    <_>
      <rects>
        <_>
          18 16 3 6 -1.</_>
        <_>
          19 16 1 6 3.</_></rects>
      <tilted>0</tilted></_>
    <_>
      <rects>
        <_>
          18 26 3 11 -1.</_>
        <_>
          19 26 1 11 3.</_></rects>
      <tilted>0</tilted></_>
    <_>
      <rects>
        <_>
          18 28 2 4 -1.</_>
        <_>
          18 28 1 2 2.</_>
        <_>
          19 30 1 2 2.</_></rects>
      <tilted>0</tilted></_>
    <_>
      <rects>
        <_>
          18 37 12 3 -1.</_>
        <_>
          22 37 4 3 3.</_></rects>
      <tilted>0</tilted></_>
    <_>
      <rects>
        <_>
          19 35 4 3 -1.</_>
        <_>
          19 36 4 1 3.</_></rects>
      <tilted>0</tilted></_>
    <_>
      <rects>
        <_>
          20 6 3 29 -1.</_>
        <_>
          21 6 1 29 3.</_></rects>
      <tilted>0</tilted></_>
    <_>
      <rects>
        <_>
          20 11 7 9 -1.</_>
        <_>
          20 14 7 3 3.</_></rects>
      <tilted>0</tilted></_>
    <_>
      <rects>
        <_>
          21 0 3 2 -1.</_>
        <_>
          21 1 3 1 2.</_></rects>
      <tilted>0</tilted></_>
    <_>
      <rects>
        <_>
          21 18 2 6 -1.</_>
        <_>
          21 20 2 2 3.</_></rects>
      <tilted>0</tilted></_>
    <_>
      <rects>
        <_>
          21 23 4 3 -1.</_>
        <_>
          21 24 4 1 3.</_></rects>
      <tilted>0</tilted></_>
    <_>
      <rects>
        <_>
          21 30 3 8 -1.</_>
        <_>
          22 30 1 8 3.</_></rects>
      <tilted>0</tilted></_>
    <_>
      <rects>
        <_>
          21 30 4 3 -1.</_>
        <_>
          23 30 2 3 2.</_></rects>
      <tilted>0</tilted></_>
    <_>
      <rects>
        <_>
          21 30 9 4 -1.</_>
        <_>
          24 30 3 4 3.</_></rects>
      <tilted>0</tilted></_>
    <_>
      <rects>
        <_>
          21 35 4 1 -1.</_>
        <_>
          23 35 2 1 2.</_></rects>
      <tilted>0</tilted></_>
    <_>
      <rects>
        <_>
          22 4 6 25 -1.</_>
        <_>
          24 4 2 25 3.</_></rects>
      <tilted>0</tilted></_>
    <_>
      <rects>
        <_>
          23 22 7 2 -1.</_>
        <_>
          23 23 7 1 2.</_></rects>
      <tilted>0</tilted></_>
    <_>
      <rects>
        <_>
          23 25 2 8 -1.</_>
        <_>
          23 25 1 4 2.</_>
        <_>
          24 29 1 4 2.</_></rects>
      <tilted>0</tilted></_>
    <_>
      <rects>
        <_>
          24 4 1 3 -1.</_>
        <_>
          24 5 1 1 3.</_></rects>
      <tilted>0</tilted></_>
    <_>
      <rects>
        <_>
          24 4 6 4 -1.</_>
        <_>
          24 4 3 2 2.</_>
        <_>
          27 6 3 2 2.</_></rects>
      <tilted>0</tilted></_>
    <_>
      <rects>
        <_>
          24 22 4 10 -1.</_>
        <_>
          24 22 2 5 2.</_>
        <_>
          26 27 2 5 2.</_></rects>
      <tilted>0</tilted></_>
    <_>
      <rects>
        <_>
          25 0 1 6 -1.</_>
        <_>
          25 2 1 2 3.</_></rects>
      <tilted>0</tilted></_>
    <_>
      <rects>
        <_>
          26 6 2 2 -1.</_>
        <_>
          26 7 2 1 2.</_></rects>
      <tilted>0</tilted></_>
    <_>
      <rects>
        <_>
          26 12 2 6 -1.</_>
        <_>
          27 12 1 6 2.</_></rects>
      <tilted>0</tilted></_>
    <_>
      <rects>
        <_>
          27 1 2 4 -1.</_>
        <_>
          27 1 1 2 2.</_>
        <_>
          28 3 1 2 2.</_></rects>
      <tilted>0</tilted></_>
    <_>
      <rects>
        <_>
          27 5 3 6 -1.</_>
        <_>
          27 7 3 2 3.</_></rects>
      <tilted>0</tilted></_>
    <_>
      <rects>
        <_>
          27 12 2 4 -1.</_>
        <_>
          28 12 1 4 2.</_></rects>
      <tilted>0</tilted></_>
    <_>
      <rects>
        <_>
          28 4 1 3 -1.</_>
        <_>
          28 5 1 1 3.</_></rects>
      <tilted>0</tilted></_>
    <_>
      <rects>
        <_>
          28 36 1 3 -1.</_>
        <_>
          28 37 1 1 3.</_></rects>
      <tilted>0</tilted></_></features></cascade>
</opencv_storage>
