<?xml version="1.0"?>
<opencv_storage>
<cascade>
  <stageType>BOOST</stageType>
  <featureType>HOG</featureType>
  <height>40</height>
  <width>30</width>
  <stageParams>
    <boostType>GAB</boostType>
    <minHitRate>9.9500000476837158e-01</minHitRate>
    <maxFalseAlarm>5.0000000000000000e-01</maxFalseAlarm>
    <weightTrimRate>9.4999998807907104e-01</weightTrimRate>
    <maxDepth>1</maxDepth>
    <maxWeakCount>100</maxWeakCount></stageParams>
  <featureParams>
    <maxCatCount>0</maxCatCount>
    <featSize>36</featSize></featureParams>
  <stageNum>20</stageNum>
  <stages>
    <!-- stage 0 -->
    <_>
      <maxWeakCount>4</maxWeakCount>
      <stageThreshold>-2.9533457756042480e-01</stageThreshold>
      <weakClassifiers>
        <_>
          <internalNodes>
            0 -1 32 4.0610879659652710e-02</internalNodes>
          <leafValues>
            -6.9841271638870239e-01 3.6936935782432556e-01</leafValues></_>
        <_>
          <internalNodes>
            0 -1 104 2.3875117301940918e-02</internalNodes>
          <leafValues>
            -5.8201146125793457e-01 5.8556610345840454e-01</leafValues></_>
        <_>
          <internalNodes>
            0 -1 121 1.2805834412574768e-02</internalNodes>
          <leafValues>
            -7.0807242393493652e-01 3.9591264724731445e-01</leafValues></_>
        <_>
          <internalNodes>
            0 -1 46 8.7930244626477361e-04</internalNodes>
          <leafValues>
            6.3534945249557495e-01 -4.7860515117645264e-01</leafValues></_></weakClassifiers></_>
    <!-- stage 1 -->
    <_>
      <maxWeakCount>4</maxWeakCount>
      <stageThreshold>-5.7575851678848267e-01</stageThreshold>
      <weakClassifiers>
        <_>
          <internalNodes>
            0 -1 90 6.0978844761848450e-02</internalNodes>
          <leafValues>
            -5.6213015317916870e-01 7.0588237047195435e-01</leafValues></_>
        <_>
          <internalNodes>
            0 -1 142 2.2783152759075165e-02</internalNodes>
          <leafValues>
            -8.1091994047164917e-01 4.6880766749382019e-01</leafValues></_>
        <_>
          <internalNodes>
            0 -1 130 1.5039279125630856e-02</internalNodes>
          <leafValues>
            -7.7974677085876465e-01 4.2076140642166138e-01</leafValues></_>
        <_>
          <internalNodes>
            0 -1 45 1.0074025020003319e-02</internalNodes>
          <leafValues>
            3.7653020024299622e-01 -8.5286778211593628e-01</leafValues></_></weakClassifiers></_>
    <!-- stage 2 -->
    <_>
      <maxWeakCount>3</maxWeakCount>
      <stageThreshold>-3.9754500985145569e-01</stageThreshold>
      <weakClassifiers>
        <_>
          <internalNodes>
            0 -1 115 2.3043954744935036e-02</internalNodes>
          <leafValues>
            -6.9230771064758301e-01 2.8333333134651184e-01</leafValues></_>
        <_>
          <internalNodes>
            0 -1 114 1.3712687417864799e-02</internalNodes>
          <leafValues>
            -8.5351556539535522e-01 2.8809791803359985e-01</leafValues></_>
        <_>
          <internalNodes>
            0 -1 131 1.9021667540073395e-02</internalNodes>
          <leafValues>
            2.5334081053733826e-01 -9.6897625923156738e-01</leafValues></_></weakClassifiers></_>
    <!-- stage 3 -->
    <_>
      <maxWeakCount>4</maxWeakCount>
      <stageThreshold>-4.4112804532051086e-01</stageThreshold>
      <weakClassifiers>
        <_>
          <internalNodes>
            0 -1 39 6.1440769582986832e-02</internalNodes>
          <leafValues>
            -5.3012049198150635e-01 5.7746475934982300e-01</leafValues></_>
        <_>
          <internalNodes>
            0 -1 61 1.5601839870214462e-02</internalNodes>
          <leafValues>
            -7.1320754289627075e-01 3.6561891436576843e-01</leafValues></_>
        <_>
          <internalNodes>
            0 -1 50 3.0709551647305489e-02</internalNodes>
          <leafValues>
            -5.1130491495132446e-01 5.2728736400604248e-01</leafValues></_>
        <_>
          <internalNodes>
            0 -1 54 9.9900756031274796e-03</internalNodes>
          <leafValues>
            -9.4447147846221924e-01 2.7491259574890137e-01</leafValues></_></weakClassifiers></_>
    <!-- stage 4 -->
    <_>
      <maxWeakCount>7</maxWeakCount>
      <stageThreshold>-1.0860978364944458e+00</stageThreshold>
      <weakClassifiers>
        <_>
          <internalNodes>
            0 -1 69 3.4231920726597309e-03</internalNodes>
          <leafValues>
            2.4369747936725616e-01 -6.4406782388687134e-01</leafValues></_>
        <_>
          <internalNodes>
            0 -1 129 3.6606583744287491e-02</internalNodes>
          <leafValues>
            -3.7506505846977234e-01 5.8503848314285278e-01</leafValues></_>
        <_>
          <internalNodes>
            0 -1 94 9.3696955591440201e-03</internalNodes>
          <leafValues>
            5.0550734996795654e-01 -4.1105297207832336e-01</leafValues></_>
        <_>
          <internalNodes>
            0 -1 73 3.9698041975498199e-02</internalNodes>
          <leafValues>
            -2.8134205937385559e-01 6.8497526645660400e-01</leafValues></_>
        <_>
          <internalNodes>
            0 -1 51 1.9426167011260986e-02</internalNodes>
          <leafValues>
            -6.2505197525024414e-01 3.0173975229263306e-01</leafValues></_>
        <_>
          <internalNodes>
            0 -1 101 3.2465673983097076e-02</internalNodes>
          <leafValues>
            1.8340604007244110e-01 -9.7478491067886353e-01</leafValues></_>
        <_>
          <internalNodes>
            0 -1 67 3.9535991847515106e-02</internalNodes>
          <leafValues>
            1.5051569044589996e-01 -9.5008170604705811e-01</leafValues></_></weakClassifiers></_>
    <!-- stage 5 -->
    <_>
      <maxWeakCount>5</maxWeakCount>
      <stageThreshold>-1.0715353488922119e+00</stageThreshold>
      <weakClassifiers>
        <_>
          <internalNodes>
            0 -1 62 6.5266087651252747e-02</internalNodes>
          <leafValues>
            -5.4666668176651001e-01 4.0229883790016174e-01</leafValues></_>
        <_>
          <internalNodes>
            0 -1 103 1.9904891029000282e-02</internalNodes>
          <leafValues>
            2.2464562952518463e-01 -7.8084975481033325e-01</leafValues></_>
        <_>
          <internalNodes>
            0 -1 83 1.6171852126717567e-02</internalNodes>
          <leafValues>
            -7.2528940439224243e-01 2.1158681809902191e-01</leafValues></_>
        <_>
          <internalNodes>
            0 -1 2 1.0197255760431290e-02</internalNodes>
          <leafValues>
            2.2415699064731598e-01 -7.4352699518203735e-01</leafValues></_>
        <_>
          <internalNodes>
            0 -1 41 5.6454747915267944e-02</internalNodes>
          <leafValues>
            -2.4838195741176605e-01 8.3326220512390137e-01</leafValues></_></weakClassifiers></_>
    <!-- stage 6 -->
    <_>
      <maxWeakCount>7</maxWeakCount>
      <stageThreshold>-5.4875802993774414e-01</stageThreshold>
      <weakClassifiers>
        <_>
          <internalNodes>
            0 -1 95 1.1655902490019798e-02</internalNodes>
          <leafValues>
            1.8032786250114441e-01 -6.0000002384185791e-01</leafValues></_>
        <_>
          <internalNodes>
            0 -1 131 1.0456811636686325e-02</internalNodes>
          <leafValues>
            2.6018878817558289e-01 -5.9005135297775269e-01</leafValues></_>
        <_>
          <internalNodes>
            0 -1 28 3.4526004455983639e-03</internalNodes>
          <leafValues>
            3.0771294236183167e-01 -5.2264076471328735e-01</leafValues></_>
        <_>
          <internalNodes>
            0 -1 0 1.1463621631264687e-02</internalNodes>
          <leafValues>
            -5.0986003875732422e-01 4.1078609228134155e-01</leafValues></_>
        <_>
          <internalNodes>
            0 -1 11 5.3051739931106567e-02</internalNodes>
          <leafValues>
            -3.2160392403602600e-01 6.1955028772354126e-01</leafValues></_>
        <_>
          <internalNodes>
            0 -1 27 2.9053924605250359e-02</internalNodes>
          <leafValues>
            1.5530060231685638e-01 -8.6817848682403564e-01</leafValues></_>
        <_>
          <internalNodes>
            0 -1 135 1.5379512682557106e-02</internalNodes>
          <leafValues>
            2.4182848632335663e-01 -6.6990834474563599e-01</leafValues></_></weakClassifiers></_>
    <!-- stage 7 -->
    <_>
      <maxWeakCount>5</maxWeakCount>
      <stageThreshold>-5.7402193546295166e-01</stageThreshold>
      <weakClassifiers>
        <_>
          <internalNodes>
            0 -1 116 1.4386586844921112e-02</internalNodes>
          <leafValues>
            -6.8000000715255737e-01 1.5328466892242432e-01</leafValues></_>
        <_>
          <internalNodes>
            0 -1 132 4.6251684427261353e-02</internalNodes>
          <leafValues>
            1.3862310349941254e-01 -8.3272463083267212e-01</leafValues></_>
        <_>
          <internalNodes>
            0 -1 12 1.4851221814751625e-02</internalNodes>
          <leafValues>
            -7.8922396898269653e-01 1.9743917882442474e-01</leafValues></_>
        <_>
          <internalNodes>
            0 -1 33 1.1460945010185242e-02</internalNodes>
          <leafValues>
            -6.5144848823547363e-01 1.3889510929584503e-01</leafValues></_>
        <_>
          <internalNodes>
            0 -1 84 3.8174290210008621e-02</internalNodes>
          <leafValues>
            -2.1560080349445343e-01 7.5204163789749146e-01</leafValues></_></weakClassifiers></_>
    <!-- stage 8 -->
    <_>
      <maxWeakCount>11</maxWeakCount>
      <stageThreshold>-8.4384703636169434e-01</stageThreshold>
      <weakClassifiers>
        <_>
          <internalNodes>
            0 -1 21 8.5911378264427185e-02</internalNodes>
          <leafValues>
            -4.1242939233779907e-01 4.3333333730697632e-01</leafValues></_>
        <_>
          <internalNodes>
            0 -1 72 2.9693059623241425e-02</internalNodes>
          <leafValues>
            -5.3037214279174805e-01 2.5199240446090698e-01</leafValues></_>
        <_>
          <internalNodes>
            0 -1 29 2.7465417981147766e-02</internalNodes>
          <leafValues>
            -2.2286128997802734e-01 5.5238616466522217e-01</leafValues></_>
        <_>
          <internalNodes>
            0 -1 43 1.9708730280399323e-02</internalNodes>
          <leafValues>
            2.1004606783390045e-01 -6.5547341108322144e-01</leafValues></_>
        <_>
          <internalNodes>
            0 -1 102 2.8482212219387293e-03</internalNodes>
          <leafValues>
            -9.1649597883224487e-01 1.5575730800628662e-01</leafValues></_>
        <_>
          <internalNodes>
            0 -1 92 5.1440395414829254e-02</internalNodes>
          <leafValues>
            -1.8277366459369659e-01 7.5715810060501099e-01</leafValues></_>
        <_>
          <internalNodes>
            0 -1 119 8.8289994746446609e-03</internalNodes>
          <leafValues>
            5.0364881753921509e-01 -2.8461548686027527e-01</leafValues></_>
        <_>
          <internalNodes>
            0 -1 8 3.2048004213720560e-03</internalNodes>
          <leafValues>
            -8.9892244338989258e-01 1.6041769087314606e-01</leafValues></_>
        <_>
          <internalNodes>
            0 -1 76 5.7404004037380219e-03</internalNodes>
          <leafValues>
            4.7992032766342163e-01 -2.6457718014717102e-01</leafValues></_>
        <_>
          <internalNodes>
            0 -1 143 2.0287763327360153e-02</internalNodes>
          <leafValues>
            -6.1572068929672241e-01 2.1157476305961609e-01</leafValues></_>
        <_>
          <internalNodes>
            0 -1 28 1.8833187641575933e-03</internalNodes>
          <leafValues>
            3.9914122223854065e-01 -4.5925888419151306e-01</leafValues></_></weakClassifiers></_>
    <!-- stage 9 -->
    <_>
      <maxWeakCount>9</maxWeakCount>
      <stageThreshold>-7.5150352716445923e-01</stageThreshold>
      <weakClassifiers>
        <_>
          <internalNodes>
            0 -1 62 7.9818196594715118e-02</internalNodes>
          <leafValues>
            -4.7651007771492004e-01 2.7272728085517883e-01</leafValues></_>
        <_>
          <internalNodes>
            0 -1 79 3.9917927235364914e-02</internalNodes>
          <leafValues>
            -2.6800715923309326e-01 4.6379038691520691e-01</leafValues></_>
        <_>
          <internalNodes>
            0 -1 78 9.2034302651882172e-03</internalNodes>
          <leafValues>
            -5.2704715728759766e-01 1.9840960204601288e-01</leafValues></_>
        <_>
          <internalNodes>
            0 -1 96 7.4823768809437752e-03</internalNodes>
          <leafValues>
            3.2778656482696533e-01 -3.2380202412605286e-01</leafValues></_>
        <_>
          <internalNodes>
            0 -1 111 4.8020608723163605e-02</internalNodes>
          <leafValues>
            -5.1838815212249756e-01 1.9068433344364166e-01</leafValues></_>
        <_>
          <internalNodes>
            0 -1 13 4.5579217374324799e-02</internalNodes>
          <leafValues>
            1.6248193383216858e-01 -7.3867660760879517e-01</leafValues></_>
        <_>
          <internalNodes>
            0 -1 93 4.8263482749462128e-02</internalNodes>
          <leafValues>
            -2.0301152765750885e-01 6.4977252483367920e-01</leafValues></_>
        <_>
          <internalNodes>
            0 -1 64 3.5371812991797924e-03</internalNodes>
          <leafValues>
            7.0684492588043213e-01 -1.5613493323326111e-01</leafValues></_>
        <_>
          <internalNodes>
            0 -1 87 1.4048686251044273e-02</internalNodes>
          <leafValues>
            -3.9468529820442200e-01 3.2745063304901123e-01</leafValues></_></weakClassifiers></_>
    <!-- stage 10 -->
    <_>
      <maxWeakCount>12</maxWeakCount>
      <stageThreshold>-9.6161365509033203e-01</stageThreshold>
      <weakClassifiers>
        <_>
          <internalNodes>
            0 -1 58 8.3937309682369232e-03</internalNodes>
          <leafValues>
            -8.4615385532379150e-01 -1.6216216608881950e-02</leafValues></_>
        <_>
          <internalNodes>
            0 -1 112 4.4526644051074982e-02</internalNodes>
          <leafValues>
            -1.9166882336139679e-01 8.1063705682754517e-01</leafValues></_>
        <_>
          <internalNodes>
            0 -1 41 2.3998357355594635e-03</internalNodes>
          <leafValues>
            5.5779272317886353e-01 -1.7237478494644165e-01</leafValues></_>
        <_>
          <internalNodes>
            0 -1 124 6.2389671802520752e-03</internalNodes>
          <leafValues>
            -8.6851012706756592e-01 1.3003171980381012e-01</leafValues></_>
        <_>
          <internalNodes>
            0 -1 68 1.9737999886274338e-02</internalNodes>
          <leafValues>
            2.7248096466064453e-01 -5.2271711826324463e-01</leafValues></_>
        <_>
          <internalNodes>
            0 -1 139 3.6820538341999054e-02</internalNodes>
          <leafValues>
            9.3380145728588104e-02 -1.</leafValues></_>
        <_>
          <internalNodes>
            0 -1 56 4.1224248707294464e-02</internalNodes>
          <leafValues>
            1.2648560106754303e-01 -6.5009546279907227e-01</leafValues></_>
        <_>
          <internalNodes>
            0 -1 10 1.2861311435699463e-02</internalNodes>
          <leafValues>
            2.0019142329692841e-01 -5.0116670131683350e-01</leafValues></_>
        <_>
          <internalNodes>
            0 -1 118 3.0184984207153320e-02</internalNodes>
          <leafValues>
            -1.9401818513870239e-01 7.2748535871505737e-01</leafValues></_>
        <_>
          <internalNodes>
            0 -1 14 1.5795260667800903e-02</internalNodes>
          <leafValues>
            -3.7413686513900757e-01 3.8373610377311707e-01</leafValues></_>
        <_>
          <internalNodes>
            0 -1 63 9.1496538370847702e-03</internalNodes>
          <leafValues>
            3.9791521430015564e-01 -2.8387841582298279e-01</leafValues></_>
        <_>
          <internalNodes>
            0 -1 136 1.5904124826192856e-02</internalNodes>
          <leafValues>
            -4.3491506576538086e-01 2.2469086945056915e-01</leafValues></_></weakClassifiers></_>
    <!-- stage 11 -->
    <_>
      <maxWeakCount>6</maxWeakCount>
      <stageThreshold>-3.5164105892181396e-01</stageThreshold>
      <weakClassifiers>
        <_>
          <internalNodes>
            0 -1 11 6.7583471536636353e-02</internalNodes>
          <leafValues>
            -4.3195265531539917e-01 3.8235294818878174e-01</leafValues></_>
        <_>
          <internalNodes>
            0 -1 66 2.2266931831836700e-02</internalNodes>
          <leafValues>
            2.1275323629379272e-01 -5.6662702560424805e-01</leafValues></_>
        <_>
          <internalNodes>
            0 -1 36 3.2591942697763443e-02</internalNodes>
          <leafValues>
            -1.7286491394042969e-01 6.0228157043457031e-01</leafValues></_>
        <_>
          <internalNodes>
            0 -1 38 1.6123687848448753e-02</internalNodes>
          <leafValues>
            -4.7247794270515442e-01 2.4665400385856628e-01</leafValues></_>
        <_>
          <internalNodes>
            0 -1 89 1.7063077539205551e-02</internalNodes>
          <leafValues>
            2.7153626084327698e-01 -4.5831295847892761e-01</leafValues></_>
        <_>
          <internalNodes>
            0 -1 128 2.8120014816522598e-02</internalNodes>
          <leafValues>
            -4.3234229087829590e-01 3.0161330103874207e-01</leafValues></_></weakClassifiers></_>
    <!-- stage 12 -->
    <_>
      <maxWeakCount>11</maxWeakCount>
      <stageThreshold>-1.1477763652801514e+00</stageThreshold>
      <weakClassifiers>
        <_>
          <internalNodes>
            0 -1 122 2.9031364247202873e-02</internalNodes>
          <leafValues>
            -4.9629628658294678e-01 1.9607843458652496e-01</leafValues></_>
        <_>
          <internalNodes>
            0 -1 31 1.5870247036218643e-02</internalNodes>
          <leafValues>
            1.9230446219444275e-01 -6.4851993322372437e-01</leafValues></_>
        <_>
          <internalNodes>
            0 -1 74 4.7481961548328400e-02</internalNodes>
          <leafValues>
            -2.5142931938171387e-01 4.0833258628845215e-01</leafValues></_>
        <_>
          <internalNodes>
            0 -1 80 8.7767094373703003e-03</internalNodes>
          <leafValues>
            3.9820504188537598e-01 -3.3244517445564270e-01</leafValues></_>
        <_>
          <internalNodes>
            0 -1 40 2.7238605543971062e-02</internalNodes>
          <leafValues>
            -2.9769125580787659e-01 3.8343042135238647e-01</leafValues></_>
        <_>
          <internalNodes>
            0 -1 117 1.4871731400489807e-02</internalNodes>
          <leafValues>
            -2.9428017139434814e-01 4.7502872347831726e-01</leafValues></_>
        <_>
          <internalNodes>
            0 -1 123 3.3712290227413177e-02</internalNodes>
          <leafValues>
            2.6319232583045959e-01 -4.9803400039672852e-01</leafValues></_>
        <_>
          <internalNodes>
            0 -1 97 4.7353911213576794e-04</internalNodes>
          <leafValues>
            7.5444388389587402e-01 -2.1900354325771332e-01</leafValues></_>
        <_>
          <internalNodes>
            0 -1 126 1.2719007208943367e-02</internalNodes>
          <leafValues>
            -5.9129649400711060e-01 2.5428789854049683e-01</leafValues></_>
        <_>
          <internalNodes>
            0 -1 55 5.0729103386402130e-02</internalNodes>
          <leafValues>
            -2.0548854768276215e-01 7.5656199455261230e-01</leafValues></_>
        <_>
          <internalNodes>
            0 -1 59 2.9661986976861954e-02</internalNodes>
          <leafValues>
            -3.5286769270896912e-01 3.1534871459007263e-01</leafValues></_></weakClassifiers></_>
    <!-- stage 13 -->
    <_>
      <maxWeakCount>7</maxWeakCount>
      <stageThreshold>-8.8092118501663208e-01</stageThreshold>
      <weakClassifiers>
        <_>
          <internalNodes>
            0 -1 71 2.1913766977377236e-04</internalNodes>
          <leafValues>
            4.8275861144065857e-01 -4.1899442672729492e-01</leafValues></_>
        <_>
          <internalNodes>
            0 -1 62 7.4010342359542847e-02</internalNodes>
          <leafValues>
            -3.1053224205970764e-01 4.2610132694244385e-01</leafValues></_>
        <_>
          <internalNodes>
            0 -1 125 1.6358250752091408e-02</internalNodes>
          <leafValues>
            -5.1713895797729492e-01 3.0493307113647461e-01</leafValues></_>
        <_>
          <internalNodes>
            0 -1 5 1.4031457249075174e-03</internalNodes>
          <leafValues>
            -9.2898952960968018e-01 1.3392871618270874e-01</leafValues></_>
        <_>
          <internalNodes>
            0 -1 99 1.2243207544088364e-02</internalNodes>
          <leafValues>
            -7.2519153356552124e-01 1.9350406527519226e-01</leafValues></_>
        <_>
          <internalNodes>
            0 -1 107 9.5544196665287018e-03</internalNodes>
          <leafValues>
            3.2351052761077881e-01 -4.2987817525863647e-01</leafValues></_>
        <_>
          <internalNodes>
            0 -1 74 4.7093618661165237e-02</internalNodes>
          <leafValues>
            -2.8519889712333679e-01 4.9259525537490845e-01</leafValues></_></weakClassifiers></_>
    <!-- stage 14 -->
    <_>
      <maxWeakCount>11</maxWeakCount>
      <stageThreshold>-5.8605962991714478e-01</stageThreshold>
      <weakClassifiers>
        <_>
          <internalNodes>
            0 -1 4 1.2067644298076630e-01</internalNodes>
          <leafValues>
            -3.0516430735588074e-01 7.5000000000000000e-01</leafValues></_>
        <_>
          <internalNodes>
            0 -1 24 1.8361902330070734e-03</internalNodes>
          <leafValues>
            7.1627664566040039e-01 -1.9924288988113403e-01</leafValues></_>
        <_>
          <internalNodes>
            0 -1 22 6.0131311416625977e-02</internalNodes>
          <leafValues>
            2.4983498454093933e-01 -4.4331952929496765e-01</leafValues></_>
        <_>
          <internalNodes>
            0 -1 52 1.3067369163036346e-01</internalNodes>
          <leafValues>
            -1.7426821589469910e-01 5.6973373889923096e-01</leafValues></_>
        <_>
          <internalNodes>
            0 -1 140 3.1988553702831268e-02</internalNodes>
          <leafValues>
            -1.2207465618848801e-01 6.7724651098251343e-01</leafValues></_>
        <_>
          <internalNodes>
            0 -1 29 1.5023857355117798e-02</internalNodes>
          <leafValues>
            -3.3023142814636230e-01 2.9523032903671265e-01</leafValues></_>
        <_>
          <internalNodes>
            0 -1 35 3.4937079995870590e-02</internalNodes>
          <leafValues>
            -2.1377570927143097e-01 5.9420788288116455e-01</leafValues></_>
        <_>
          <internalNodes>
            0 -1 127 3.2956134527921677e-02</internalNodes>
          <leafValues>
            -1.4110399782657623e-01 6.4357084035873413e-01</leafValues></_>
        <_>
          <internalNodes>
            0 -1 37 3.0231010168790817e-02</internalNodes>
          <leafValues>
            -4.0636354684829712e-01 2.3875913023948669e-01</leafValues></_>
        <_>
          <internalNodes>
            0 -1 47 5.4479353129863739e-02</internalNodes>
          <leafValues>
            1.6303092241287231e-01 -8.3594018220901489e-01</leafValues></_>
        <_>
          <internalNodes>
            0 -1 16 1.1843690648674965e-02</internalNodes>
          <leafValues>
            -3.7223199009895325e-01 2.6783746480941772e-01</leafValues></_></weakClassifiers></_>
    <!-- stage 15 -->
    <_>
      <maxWeakCount>8</maxWeakCount>
      <stageThreshold>-6.3792401552200317e-01</stageThreshold>
      <weakClassifiers>
        <_>
          <internalNodes>
            0 -1 49 9.3220849521458149e-04</internalNodes>
          <leafValues>
            2.7500000596046448e-01 -4.3949043750762939e-01</leafValues></_>
        <_>
          <internalNodes>
            0 -1 101 2.8353616595268250e-02</internalNodes>
          <leafValues>
            1.3609629869461060e-01 -7.8926330804824829e-01</leafValues></_>
        <_>
          <internalNodes>
            0 -1 120 1.4433206990361214e-02</internalNodes>
          <leafValues>
            2.7987411618232727e-01 -4.2325165867805481e-01</leafValues></_>
        <_>
          <internalNodes>
            0 -1 77 1.3295650482177734e-02</internalNodes>
          <leafValues>
            4.8863807320594788e-01 -2.2049397230148315e-01</leafValues></_>
        <_>
          <internalNodes>
            0 -1 42 8.9335337281227112e-02</internalNodes>
          <leafValues>
            -2.4591071903705597e-01 5.2631479501724243e-01</leafValues></_>
        <_>
          <internalNodes>
            0 -1 57 1.6650788486003876e-02</internalNodes>
          <leafValues>
            3.6634030938148499e-01 -2.3733215034008026e-01</leafValues></_>
        <_>
          <internalNodes>
            0 -1 75 1.6204932704567909e-02</internalNodes>
          <leafValues>
            4.0162324905395508e-01 -2.4528689682483673e-01</leafValues></_>
        <_>
          <internalNodes>
            0 -1 100 6.3644886016845703e-02</internalNodes>
          <leafValues>
            -9.6062839031219482e-02 8.6245310306549072e-01</leafValues></_></weakClassifiers></_>
    <!-- stage 16 -->
    <_>
      <maxWeakCount>13</maxWeakCount>
      <stageThreshold>-7.7401721477508545e-01</stageThreshold>
      <weakClassifiers>
        <_>
          <internalNodes>
            0 -1 40 3.5579964518547058e-02</internalNodes>
          <leafValues>
            -4.2138364911079407e-01 2.5641027092933655e-01</leafValues></_>
        <_>
          <internalNodes>
            0 -1 106 3.9019428193569183e-02</internalNodes>
          <leafValues>
            1.5570074319839478e-01 -5.4358100891113281e-01</leafValues></_>
        <_>
          <internalNodes>
            0 -1 88 3.1852886080741882e-02</internalNodes>
          <leafValues>
            1.6195684671401978e-01 -4.5113566517829895e-01</leafValues></_>
        <_>
          <internalNodes>
            0 -1 15 2.3738969117403030e-02</internalNodes>
          <leafValues>
            2.3230324685573578e-01 -4.4613292813301086e-01</leafValues></_>
        <_>
          <internalNodes>
            0 -1 109 3.4180805087089539e-02</internalNodes>
          <leafValues>
            9.6028596162796021e-02 -1.</leafValues></_>
        <_>
          <internalNodes>
            0 -1 141 3.1800717115402222e-02</internalNodes>
          <leafValues>
            -2.4097640812397003e-01 3.5759520530700684e-01</leafValues></_>
        <_>
          <internalNodes>
            0 -1 134 2.0828321576118469e-02</internalNodes>
          <leafValues>
            -2.0115955173969269e-01 4.4828176498413086e-01</leafValues></_>
        <_>
          <internalNodes>
            0 -1 113 1.1172983795404434e-02</internalNodes>
          <leafValues>
            4.4837209582328796e-01 -2.2547030448913574e-01</leafValues></_>
        <_>
          <internalNodes>
            0 -1 98 1.2741141021251678e-02</internalNodes>
          <leafValues>
            4.6261838078498840e-01 -2.7838459610939026e-01</leafValues></_>
        <_>
          <internalNodes>
            0 -1 81 5.6188132613897324e-02</internalNodes>
          <leafValues>
            1.3993218541145325e-01 -8.2196664810180664e-01</leafValues></_>
        <_>
          <internalNodes>
            0 -1 18 3.5864219069480896e-02</internalNodes>
          <leafValues>
            -2.3428954184055328e-01 5.3203558921813965e-01</leafValues></_>
        <_>
          <internalNodes>
            0 -1 17 2.8597802156582475e-04</internalNodes>
          <leafValues>
            8.4881240129470825e-01 -6.7371174693107605e-02</leafValues></_>
        <_>
          <internalNodes>
            0 -1 30 3.1109421979635954e-03</internalNodes>
          <leafValues>
            -7.9460829496383667e-01 1.3809125125408173e-01</leafValues></_></weakClassifiers></_>
    <!-- stage 17 -->
    <_>
      <maxWeakCount>11</maxWeakCount>
      <stageThreshold>-1.0839476585388184e+00</stageThreshold>
      <weakClassifiers>
        <_>
          <internalNodes>
            0 -1 6 1.2746164575219154e-03</internalNodes>
          <leafValues>
            4.5833334326744080e-01 -3.6507937312126160e-01</leafValues></_>
        <_>
          <internalNodes>
            0 -1 110 6.8874224089086056e-03</internalNodes>
          <leafValues>
            -7.1148681640625000e-01 1.1874710023403168e-01</leafValues></_>
        <_>
          <internalNodes>
            0 -1 3 9.8075065761804581e-03</internalNodes>
          <leafValues>
            -5.7313835620880127e-01 1.5163539350032806e-01</leafValues></_>
        <_>
          <internalNodes>
            0 -1 34 8.4821991622447968e-02</internalNodes>
          <leafValues>
            -1.3325662910938263e-01 9.6486848592758179e-01</leafValues></_>
        <_>
          <internalNodes>
            0 -1 133 5.7392247021198273e-02</internalNodes>
          <leafValues>
            1.5214569866657257e-01 -8.2554358243942261e-01</leafValues></_>
        <_>
          <internalNodes>
            0 -1 9 1.1460582911968231e-01</internalNodes>
          <leafValues>
            1.1228201538324356e-01 -8.4703063964843750e-01</leafValues></_>
        <_>
          <internalNodes>
            0 -1 39 2.2954912856221199e-02</internalNodes>
          <leafValues>
            -4.8775464296340942e-01 1.7719438672065735e-01</leafValues></_>
        <_>
          <internalNodes>
            0 -1 138 3.3921584486961365e-02</internalNodes>
          <leafValues>
            -1.4618490636348724e-01 7.2734367847442627e-01</leafValues></_>
        <_>
          <internalNodes>
            0 -1 108 4.4117890298366547e-02</internalNodes>
          <leafValues>
            2.4752639234066010e-01 -5.3470456600189209e-01</leafValues></_>
        <_>
          <internalNodes>
            0 -1 1 4.5769126154482365e-03</internalNodes>
          <leafValues>
            2.6773750782012939e-01 -3.8927340507507324e-01</leafValues></_>
        <_>
          <internalNodes>
            0 -1 62 6.0099486261606216e-02</internalNodes>
          <leafValues>
            -3.4473532438278198e-01 3.0377542972564697e-01</leafValues></_></weakClassifiers></_>
    <!-- stage 18 -->
    <_>
      <maxWeakCount>10</maxWeakCount>
      <stageThreshold>-5.3915989398956299e-01</stageThreshold>
      <weakClassifiers>
        <_>
          <internalNodes>
            0 -1 48 2.4220196064561605e-03</internalNodes>
          <leafValues>
            1.7431192100048065e-01 -5.1562500000000000e-01</leafValues></_>
        <_>
          <internalNodes>
            0 -1 25 5.8166868984699249e-02</internalNodes>
          <leafValues>
            -1.2215021252632141e-01 1.</leafValues></_>
        <_>
          <internalNodes>
            0 -1 86 1.1549160117283463e-03</internalNodes>
          <leafValues>
            -1. 1.0836490243673325e-01</leafValues></_>
        <_>
          <internalNodes>
            0 -1 60 5.5942952632904053e-02</internalNodes>
          <leafValues>
            -1.5462048351764679e-01 7.9319226741790771e-01</leafValues></_>
        <_>
          <internalNodes>
            0 -1 23 5.4961983114480972e-02</internalNodes>
          <leafValues>
            2.3253507912158966e-01 -5.9437912702560425e-01</leafValues></_>
        <_>
          <internalNodes>
            0 -1 53 1.6827831044793129e-02</internalNodes>
          <leafValues>
            3.5224324464797974e-01 -3.1895956397056580e-01</leafValues></_>
        <_>
          <internalNodes>
            0 -1 20 5.5923003703355789e-02</internalNodes>
          <leafValues>
            2.0701983571052551e-01 -5.4455977678298950e-01</leafValues></_>
        <_>
          <internalNodes>
            0 -1 82 5.6173866614699364e-03</internalNodes>
          <leafValues>
            -6.5944409370422363e-01 1.5189662575721741e-01</leafValues></_>
        <_>
          <internalNodes>
            0 -1 129 7.0966668426990509e-02</internalNodes>
          <leafValues>
            -1.5970422327518463e-01 7.2969335317611694e-01</leafValues></_>
        <_>
          <internalNodes>
            0 -1 105 4.6081025153398514e-02</internalNodes>
          <leafValues>
            -8.8815450668334961e-02 8.7801057100296021e-01</leafValues></_></weakClassifiers></_>
    <!-- stage 19 -->
    <_>
      <maxWeakCount>10</maxWeakCount>
      <stageThreshold>-6.7598390579223633e-01</stageThreshold>
      <weakClassifiers>
        <_>
          <internalNodes>
            0 -1 108 2.6290973648428917e-02</internalNodes>
          <leafValues>
            -4.9206349253654480e-01 1.3513512909412384e-01</leafValues></_>
        <_>
          <internalNodes>
            0 -1 137 5.3024683147668839e-02</internalNodes>
          <leafValues>
            5.7923611253499985e-02 -1.</leafValues></_>
        <_>
          <internalNodes>
            0 -1 44 2.3295010905712843e-03</internalNodes>
          <leafValues>
            5.1218366622924805e-01 -1.7254012823104858e-01</leafValues></_>
        <_>
          <internalNodes>
            0 -1 19 7.0839606225490570e-02</internalNodes>
          <leafValues>
            -1.2530705332756042e-01 8.1806468963623047e-01</leafValues></_>
        <_>
          <internalNodes>
            0 -1 65 4.1587218642234802e-02</internalNodes>
          <leafValues>
            -3.1048616766929626e-01 3.8751912117004395e-01</leafValues></_>
        <_>
          <internalNodes>
            0 -1 7 5.4649643599987030e-02</internalNodes>
          <leafValues>
            -2.1533426642417908e-01 5.3948110342025757e-01</leafValues></_>
        <_>
          <internalNodes>
            0 -1 70 2.0450379699468613e-02</internalNodes>
          <leafValues>
            1.9087566435337067e-01 -5.8452266454696655e-01</leafValues></_>
        <_>
          <internalNodes>
            0 -1 91 3.2065622508525848e-02</internalNodes>
          <leafValues>
            -1.5998145937919617e-01 6.1594104766845703e-01</leafValues></_>
        <_>
          <internalNodes>
            0 -1 26 1.8942538648843765e-02</internalNodes>
          <leafValues>
            -2.8065726161003113e-01 4.3259775638580322e-01</leafValues></_>
        <_>
          <internalNodes>
            0 -1 85 9.0056727640330791e-04</internalNodes>
          <leafValues>
            -8.6379569768905640e-01 1.4686290919780731e-01</leafValues></_></weakClassifiers></_></stages>
  <features>
    <_>
      <rect>
        0 0 8 8 12</rect></_>
    <_>
      <rect>
        0 0 8 8 14</rect></_>
    <_>
      <rect>
        0 0 8 8 15</rect></_>
    <_>
      <rect>
        0 0 8 8 26</rect></_>
    <_>
      <rect>
        0 0 8 8 29</rect></_>
    <_>
      <rect>
        0 4 8 8 12</rect></_>
    <_>
      <rect>
        0 4 8 8 24</rect></_>
    <_>
      <rect>
        0 4 8 8 31</rect></_>
    <_>
      <rect>
        0 4 8 8 34</rect></_>
    <_>
      <rect>
        0 8 8 8 4</rect></_>
    <_>
      <rect>
        0 8 8 8 5</rect></_>
    <_>
      <rect>
        0 12 8 8 8</rect></_>
    <_>
      <rect>
        0 12 8 8 12</rect></_>
    <_>
      <rect>
        0 12 8 8 14</rect></_>
    <_>
      <rect>
        0 12 8 8 15</rect></_>
    <_>
      <rect>
        0 16 8 8 1</rect></_>
    <_>
      <rect>
        0 16 8 8 4</rect></_>
    <_>
      <rect>
        0 16 8 8 6</rect></_>
    <_>
      <rect>
        0 20 8 8 18</rect></_>
    <_>
      <rect>
        0 20 8 8 19</rect></_>
    <_>
      <rect>
        0 20 8 8 21</rect></_>
    <_>
      <rect>
        0 20 8 8 22</rect></_>
    <_>
      <rect>
        0 24 8 8 4</rect></_>
    <_>
      <rect>
        0 24 8 8 15</rect></_>
    <_>
      <rect>
        0 24 8 8 16</rect></_>
    <_>
      <rect>
        0 24 8 8 19</rect></_>
    <_>
      <rect>
        0 24 8 8 21</rect></_>
    <_>
      <rect>
        4 0 8 8 8</rect></_>
    <_>
      <rect>
        4 0 8 8 16</rect></_>
    <_>
      <rect>
        4 4 8 8 0</rect></_>
    <_>
      <rect>
        4 4 8 8 3</rect></_>
    <_>
      <rect>
        4 4 8 8 5</rect></_>
    <_>
      <rect>
        4 4 8 8 13</rect></_>
    <_>
      <rect>
        4 4 8 8 26</rect></_>
    <_>
      <rect>
        4 4 8 8 28</rect></_>
    <_>
      <rect>
        4 12 8 8 3</rect></_>
    <_>
      <rect>
        4 12 8 8 7</rect></_>
    <_>
      <rect>
        4 12 8 8 8</rect></_>
    <_>
      <rect>
        4 12 8 8 14</rect></_>
    <_>
      <rect>
        4 20 8 8 22</rect></_>
    <_>
      <rect>
        4 24 8 8 3</rect></_>
    <_>
      <rect>
        4 24 8 8 16</rect></_>
    <_>
      <rect>
        4 24 8 8 22</rect></_>
    <_>
      <rect>
        4 24 8 8 27</rect></_>
    <_>
      <rect>
        4 24 8 8 32</rect></_>
    <_>
      <rect>
        8 0 8 8 6</rect></_>
    <_>
      <rect>
        8 0 8 8 9</rect></_>
    <_>
      <rect>
        8 0 8 8 12</rect></_>
    <_>
      <rect>
        8 0 8 8 16</rect></_>
    <_>
      <rect>
        8 0 8 8 17</rect></_>
    <_>
      <rect>
        8 0 8 8 19</rect></_>
    <_>
      <rect>
        8 0 8 8 21</rect></_>
    <_>
      <rect>
        8 4 8 8 4</rect></_>
    <_>
      <rect>
        8 4 8 8 27</rect></_>
    <_>
      <rect>
        8 4 8 8 30</rect></_>
    <_>
      <rect>
        8 8 8 8 16</rect></_>
    <_>
      <rect>
        8 8 8 8 22</rect></_>
    <_>
      <rect>
        8 8 8 8 23</rect></_>
    <_>
      <rect>
        8 8 8 8 27</rect></_>
    <_>
      <rect>
        8 12 8 8 12</rect></_>
    <_>
      <rect>
        8 12 8 8 28</rect></_>
    <_>
      <rect>
        8 16 8 8 17</rect></_>
    <_>
      <rect>
        8 20 8 8 22</rect></_>
    <_>
      <rect>
        8 20 8 8 32</rect></_>
    <_>
      <rect>
        8 24 8 8 16</rect></_>
    <_>
      <rect>
        8 24 8 8 22</rect></_>
    <_>
      <rect>
        8 24 8 8 23</rect></_>
    <_>
      <rect>
        8 24 8 8 26</rect></_>
    <_>
      <rect>
        8 24 8 8 35</rect></_>
    <_>
      <rect>
        12 0 8 8 0</rect></_>
    <_>
      <rect>
        12 0 8 8 16</rect></_>
    <_>
      <rect>
        12 0 8 8 17</rect></_>
    <_>
      <rect>
        12 0 8 8 21</rect></_>
    <_>
      <rect>
        12 0 8 8 34</rect></_>
    <_>
      <rect>
        12 0 8 8 35</rect></_>
    <_>
      <rect>
        12 4 8 8 24</rect></_>
    <_>
      <rect>
        12 4 8 8 28</rect></_>
    <_>
      <rect>
        12 8 8 8 13</rect></_>
    <_>
      <rect>
        12 12 8 8 0</rect></_>
    <_>
      <rect>
        12 12 8 8 2</rect></_>
    <_>
      <rect>
        12 12 8 8 10</rect></_>
    <_>
      <rect>
        12 12 8 8 14</rect></_>
    <_>
      <rect>
        12 12 8 8 33</rect></_>
    <_>
      <rect>
        12 16 8 8 17</rect></_>
    <_>
      <rect>
        12 16 8 8 25</rect></_>
    <_>
      <rect>
        12 16 8 8 27</rect></_>
    <_>
      <rect>
        12 16 8 8 31</rect></_>
    <_>
      <rect>
        12 16 8 8 33</rect></_>
    <_>
      <rect>
        12 20 8 8 8</rect></_>
    <_>
      <rect>
        12 20 8 8 11</rect></_>
    <_>
      <rect>
        12 20 8 8 22</rect></_>
    <_>
      <rect>
        12 20 8 8 27</rect></_>
    <_>
      <rect>
        12 24 8 8 7</rect></_>
    <_>
      <rect>
        12 24 8 8 9</rect></_>
    <_>
      <rect>
        12 24 8 8 20</rect></_>
    <_>
      <rect>
        12 24 8 8 32</rect></_>
    <_>
      <rect>
        12 24 8 8 34</rect></_>
    <_>
      <rect>
        0 0 8 16 6</rect></_>
    <_>
      <rect>
        0 0 8 16 25</rect></_>
    <_>
      <rect>
        0 0 8 16 32</rect></_>
    <_>
      <rect>
        0 0 8 16 33</rect></_>
    <_>
      <rect>
        0 4 8 16 2</rect></_>
    <_>
      <rect>
        0 4 8 16 19</rect></_>
    <_>
      <rect>
        0 4 8 16 23</rect></_>
    <_>
      <rect>
        0 8 8 16 10</rect></_>
    <_>
      <rect>
        0 8 8 16 19</rect></_>
    <_>
      <rect>
        0 8 8 16 21</rect></_>
    <_>
      <rect>
        0 8 8 16 23</rect></_>
    <_>
      <rect>
        0 8 8 16 30</rect></_>
    <_>
      <rect>
        4 0 8 16 9</rect></_>
    <_>
      <rect>
        4 0 8 16 21</rect></_>
    <_>
      <rect>
        4 4 8 16 13</rect></_>
    <_>
      <rect>
        4 4 8 16 20</rect></_>
    <_>
      <rect>
        4 4 8 16 27</rect></_>
    <_>
      <rect>
        4 4 8 16 30</rect></_>
    <_>
      <rect>
        4 8 8 16 8</rect></_>
    <_>
      <rect>
        4 8 8 16 15</rect></_>
    <_>
      <rect>
        4 8 8 16 19</rect></_>
    <_>
      <rect>
        4 8 8 16 34</rect></_>
    <_>
      <rect>
        4 8 8 16 35</rect></_>
    <_>
      <rect>
        8 0 8 16 8</rect></_>
    <_>
      <rect>
        8 0 8 16 28</rect></_>
    <_>
      <rect>
        8 0 8 16 35</rect></_>
    <_>
      <rect>
        8 4 8 16 21</rect></_>
    <_>
      <rect>
        8 4 8 16 27</rect></_>
    <_>
      <rect>
        8 4 8 16 28</rect></_>
    <_>
      <rect>
        8 4 8 16 30</rect></_>
    <_>
      <rect>
        8 4 8 16 33</rect></_>
    <_>
      <rect>
        8 8 8 16 12</rect></_>
    <_>
      <rect>
        8 8 8 16 15</rect></_>
    <_>
      <rect>
        8 8 8 16 16</rect></_>
    <_>
      <rect>
        12 0 8 16 11</rect></_>
    <_>
      <rect>
        12 0 8 16 12</rect></_>
    <_>
      <rect>
        12 0 8 16 16</rect></_>
    <_>
      <rect>
        12 4 8 16 7</rect></_>
    <_>
      <rect>
        12 4 8 16 11</rect></_>
    <_>
      <rect>
        12 4 8 16 17</rect></_>
    <_>
      <rect>
        12 4 8 16 20</rect></_>
    <_>
      <rect>
        12 4 8 16 25</rect></_>
    <_>
      <rect>
        12 4 8 16 29</rect></_>
    <_>
      <rect>
        12 4 8 16 32</rect></_>
    <_>
      <rect>
        12 8 8 16 1</rect></_>
    <_>
      <rect>
        12 8 8 16 3</rect></_>
    <_>
      <rect>
        12 8 8 16 16</rect></_></features></cascade>
</opencv_storage>
